solver_type L2R_L2LOSS_SVC
nr_class 2
label 1 10
nr_feature 62
bias -1
w
0.1014713897814094 
0.1135728481257892 
-0.1549566166577436 
0.08607746920056517 
0.0744601535658917 
0.02673387848807132 
0.1135728481257892 
0.06289404472246683 
0 
0.02673387848807132 
0 
-0.4820169649253684 
0.02318342447809812 
-0.01315665160316569 
0.09918291401248211 
0.06289404472246683 
-0.1007262082240499 
0.3011380259875569 
0.02673387848807132 
-0.4820169649253684 
0.2526001947017332 
0.04636684895619624 
0.01362843367615421 
0.09918291401248211 
-0.07889781300070726 
0.02673387848807132 
0.01717888768612741 
0.1505690129937785 
0.07244903552441079 
-0.01910998160388782 
0.1983658280249642 
-0.03510082931172027 
-0.004387603663965034 
-0.004387603663965034 
-0.004387603663965034 
-0.004387603663965034 
0 
-0.004387603663965034 
-0.004387603663965034 
0 
0 
0 
0 
0 
0 
-0.004387603663965034 
-0.004387603663965034 
0 
-0.008775207327930069 
0 
0 
0 
0 
0 
-0.004387603663965034 
0 
0 
0 
-0.004387603663965034 
-0.004387603663965034 
0 
-0.008775207327930069 
